digraph Tree {
node [shape=box] ;
0 [label="X[2] <= 0.5\nentropy = 2.175\nsamples = 128\nvalue = [42, 44, 12, 6, 5, 19]"] ;
1 [label="entropy = 1.82\nsamples = 36\nvalue = [0, 8, 0, 6, 5, 17]"] ;
0 -> 1 [labeldistance=2.5, labelangle=45, headlabel="True"] ;
2 [label="entropy = 1.549\nsamples = 92\nvalue = [42, 36, 12, 0, 0, 2]"] ;
0 -> 2 [labeldistance=2.5, labelangle=-45, headlabel="False"] ;
}
